{"learner":{"attributes":{"best_iteration":"21","best_score":"15709.868624177336","scikit_learn":"{\"_estimator_type\": \"regressor\"}"},"feature_names":["useractivity","activestreak","bestactivestreak","itemsbought","pointsbought","itemsboughtabroad","weaponsbought","itemssent","auctionswon","auctionsells","attackswon","attackslost","attacksdraw","bestkillstreak","moneymugged","attacksstealthed","attackhits","attackmisses","attackdamage","attackcriticalhits","respectforfaction","onehitkills","defendswon","defendslost","defendsstalemated","bestdamage","roundsfired","yourunaway","theyrunaway","highestbeaten","peoplebusted","failedbusts","peoplebought","peopleboughtspent","virusescoded","cityfinds","traveltimes","bountiesplaced","bountiesreceived","bountiescollected","totalbountyreward","revives","revivesreceived","medicalitemsused","statenhancersused","trainsreceived","totalbountyspent","drugsused","overdosed","meritsbought","personalsplaced","classifiedadsplaced","mailssent","friendmailssent","factionmailssent","companymailssent","spousemailssent","largestmug","cantaken","exttaken","kettaken","lsdtaken","opitaken","shrtaken","spetaken","pcptaken","xantaken","victaken","chahits","heahits","axehits","grehits","machits","pishits","rifhits","shohits","smghits","piehits","slahits","argtravel","mextravel","dubtravel","hawtravel","japtravel","lontravel","soutravel","switravel","chitravel","cantravel","dumpfinds","dumpsearches","itemsdumped","daysbeendonator","caytravel","jailed","hospital","attacksassisted","bloodwithdrawn","networth","missionscompleted","contractscompleted","dukecontractscompleted","missioncreditsearned","consumablesused","candyused","alcoholused","energydrinkused","nerverefills","unarmoredwon","h2hhits","organisedcrimes","territorytime","territoryjoins","arrestsmade","booksread","traveltime","boostersused","rehabs","rehabcost","awards","receivedbountyvalue","racingskill","raceswon","racesentered","racingpointsearned","specialammoused","cityitemsbought","hollowammoused","tracerammoused","piercingammoused","incendiaryammoused","attackswonabroad","defendslostabroad","rankedwarringwins","retals","elo","jobpointsused","reviveskill","itemslooted","rankedwarhits","raidhits","territoryclears","refills","user"],"feature_types":["int","int","int","int","int","int","int","int","int","int","int","int","int","int","int","int","int","int","int","int","int","int","int","int","int","int","int","int","int","int","int","int","int","int","int","int","int","int","int","int","int","int","int","int","int","int","int","int","int","int","int","int","int","int","int","int","int","int","int","int","int","int","int","int","int","int","int","int","int","int","int","int","int","int","int","int","int","int","int","int","int","int","int","int","int","int","int","int","int","int","int","int","int","int","int","int","int","int","int","int","int","int","int","int","int","int","int","int","int","int","int","int","int","int","int","int","int","int","int","int","int","int","int","int","int","int","int","int","int","int","int","int","int","int","int","int","int","int","int","int","int","int","int","int"],"gradient_booster":{"model":{"gbtree_model_param":{"num_parallel_tree":"1","num_trees":"32"},"iteration_indptr":[0,1,2,3,4,5,6,7,8,9,10,11,12,13,14,15,16,17,18,19,20,21,22,23,24,25,26,27,28,29,30,31,32],"tree_info":[0,0,0,0,0,0,0,0,0,0,0,0,0,0,0,0,0,0,0,0,0,0,0,0,0,0,0,0,0,0,0,0],"trees":[{"base_weights":[9.8661316E-5,-6.9265703E3,8.600678E4,-1.2728832E4,1.850488E4,6.217814E4,1.435732E5,-1.8663225E3,9.4328516E2,1.127716E3,4.0661772E3,6.699625E3,1.1307132E4,1.7059752E4,2.7065209E4],"categories":[],"categories_nodes":[],"categories_segments":[],"categories_sizes":[],"default_left":[0,0,0,0,0,0,0,0,0,0,0,0,0,0,0],"id":0,"left_children":[1,3,5,7,9,11,13,-1,-1,-1,-1,-1,-1,-1,-1],"loss_changes":[1.4818835E13,3.3972127E12,2.5342603E12,2.1977629E11,4.7080315E11,3.4570188E11,5.620504E11,0E0,0E0,0E0,0E0,0E0,0E0,0E0,0E0],"parents":[2147483647,0,0,1,1,2,2,3,3,4,4,5,5,6,6],"right_children":[2,4,6,8,10,12,14,-1,-1,-1,-1,-1,-1,-1,-1],"split_conditions":[2.002E3,4.173E3,3.508E3,9.4E2,4.1E2,2.202E3,5.322E3,-1.8663225E3,9.4328516E2,1.127716E3,4.0661772E3,6.699625E3,1.1307132E4,1.7059752E4,2.7065209E4],"split_indices":[135,25,66,66,142,135,66,0,0,0,0,0,0,0,0],"split_type":[0,0,0,0,0,0,0,0,0,0,0,0,0,0,0],"sum_hessian":[2.4873E4,2.302E4,1.853E3,1.8744E4,4.276E3,1.312E3,5.41E2,1.8182E4,5.62E2,2.148E3,2.128E3,7.43E2,5.69E2,3.79E2,1.62E2],"tree_param":{"num_deleted":"0","num_feature":"144","num_nodes":"15","size_leaf_vector":"1"}},{"base_weights":[2.6696262E0,-6.8985376E3,6.553502E4,-1.1055988E4,1.3614322E4,4.7177293E4,1.22499016E5,-1.7172306E3,-6.156142E2,1.1592345E3,4.3987563E3,7.275497E3,-2.3313877E3,1.4359435E4,2.2802383E4],"categories":[],"categories_nodes":[],"categories_segments":[],"categories_sizes":[],"default_left":[0,0,0,0,0,0,0,0,0,0,0,0,0,0,0],"id":1,"left_children":[1,3,5,7,9,11,13,-1,-1,-1,-1,-1,-1,-1,-1],"loss_changes":[1.1249778E13,1.9194042E12,2.4725988E12,1.5071104E11,3.599806E11,5.4943574E11,4.476308E11,0E0,0E0,0E0,0E0,0E0,0E0,0E0,0E0],"parents":[2147483647,0,0,1,1,2,2,3,3,4,4,5,5,6,6],"right_children":[2,4,6,8,10,12,14,-1,-1,-1,-1,-1,-1,-1,-1],"split_conditions":[1.622E3,4.173E3,3.508E3,2.843E3,5.46E2,3.5085E4,1.839E3,-1.7172306E3,-6.156142E2,1.1592345E3,4.3987563E3,7.275497E3,-2.3313877E3,1.4359435E4,2.2802383E4],"split_indices":[66,25,66,25,142,10,142,0,0,0,0,0,0,0,0],"split_type":[0,0,0,0,0,0,0,0,0,0,0,0,0,0,0],"sum_hessian":[2.4873E4,2.2504E4,2.369E3,1.8712E4,3.792E3,1.793E3,5.76E2,1.5834E4,2.878E3,2.919E3,8.73E2,1.668E3,1.25E2,3.88E2,1.88E2],"tree_param":{"num_deleted":"0","num_feature":"144","num_nodes":"15","size_leaf_vector":"1"}},{"base_weights":[4.1180553E0,-5.3670854E3,6.2974953E4,-9.021992E3,1.5691719E4,4.858694E4,1.1949598E5,-1.3841125E3,7.410394E2,3.37972E3,1.01336334E3,4.7750664E3,9.041971E3,1.4487643E4,2.2804432E4],"categories":[],"categories_nodes":[],"categories_segments":[],"categories_sizes":[],"default_left":[0,0,0,0,0,0,0,0,0,0,0,0,0,0,0],"id":2,"left_children":[1,3,5,7,9,11,13,-1,-1,-1,-1,-1,-1,-1,-1],"loss_changes":[8.4134503E12,1.7642472E12,1.5840492E12,2.4176427E11,2.4195275E11,3.5916848E11,2.5830097E11,0E0,0E0,0E0,0E0,0E0,0E0,0E0,0E0],"parents":[2147483647,0,0,1,1,2,2,3,3,4,4,5,5,6,6],"right_children":[2,4,6,8,10,12,14,-1,-1,-1,-1,-1,-1,-1,-1],"split_conditions":[1.987E3,3.1E2,2.458E3,4.511E3,5E0,2.694E3,1.38E2,-1.3841125E3,7.410394E2,3.37972E3,1.01336334E3,4.7750664E3,9.041971E3,1.4487643E4,2.2804432E4],"split_indices":[135,142,135,25,1,47,48,0,0,0,0,0,0,0,0],"split_type":[0,0,0,0,0,0,0,0,0,0,0,0,0,0,0],"sum_hessian":[2.4873E4,2.2919E4,1.954E3,1.953E4,3.389E3,1.559E3,3.95E2,1.8418E4,1.112E3,1.694E3,1.695E3,8.2E2,7.39E2,2.91E2,1.04E2],"tree_param":{"num_deleted":"0","num_feature":"144","num_nodes":"15","size_leaf_vector":"1"}},{"base_weights":[5.746821E0,-5.189834E3,4.934184E4,-7.6883745E3,1.4125954E4,3.413949E4,8.8927055E4,-1.2515248E3,4.169314E1,1.2164275E3,4.3393145E3,5.32918E3,-2.1901255E3,9.956667E3,1.6391543E4],"categories":[],"categories_nodes":[],"categories_segments":[],"categories_sizes":[],"default_left":[0,0,0,0,0,0,0,0,0,0,0,0,0,0,0],"id":3,"left_children":[1,3,5,7,9,11,13,-1,-1,-1,-1,-1,-1,-1,-1],"loss_changes":[6.3762E12,1.0862286E12,1.4232018E12,1.9911174E11,2.361867E11,3.3560225E11,3.210876E11,0E0,0E0,0E0,0E0,0E0,0E0,0E0,0E0],"parents":[2147483647,0,0,1,1,2,2,3,3,4,4,5,5,6,6],"right_children":[2,4,6,8,10,12,14,-1,-1,-1,-1,-1,-1,-1,-1],"split_conditions":[1.622E3,4.713E3,3.324E3,5.19E2,1.465E3,3.5085E4,1.647E3,-1.2515248E3,4.169314E1,1.2164275E3,4.3393145E3,5.32918E3,-2.1901255E3,9.956667E3,1.6391543E4],"split_indices":[66,25,66,92,92,10,142,0,0,0,0,0,0,0,0],"split_type":[0,0,0,0,0,0,0,0,0,0,0,0,0,0,0],"sum_hessian":[2.4873E4,2.2504E4,2.369E3,1.9927E4,2.577E3,1.713E3,6.56E2,1.7228E4,2.699E3,1.95E3,6.27E2,1.588E3,1.25E2,4.04E2,2.52E2],"tree_param":{"num_deleted":"0","num_feature":"144","num_nodes":"15","size_leaf_vector":"1"}},{"base_weights":[6.3021894E0,-4.333445E3,4.4402992E4,-6.3197812E3,1.689667E4,3.4358293E4,9.088412E4,-1.0328337E3,5.2199036E2,2.1111133E3,5.239839E3,2.1814392E3,6.264967E3,1.244912E4,6.0194426E4],"categories":[],"categories_nodes":[],"categories_segments":[],"categories_sizes":[],"default_left":[0,0,0,0,0,0,0,0,0,0,0,0,0,0,0],"id":4,"left_children":[1,3,5,7,9,11,13,-1,-1,-1,-1,-1,-1,-1,-1],"loss_changes":[4.792676E12,9.556823E11,1.0310362E12,2.2024205E11,7.178027E10,3.5499973E11,2.2319412E11,0E0,0E0,0E0,0E0,0E0,0E0,0E0,0E0],"parents":[2147483647,0,0,1,1,2,2,3,3,4,4,5,5,6,6],"right_children":[2,4,6,8,10,12,14,-1,-1,-1,-1,-1,-1,-1,-1],"split_conditions":[6.81E2,1.204E3,2.458E3,7.82E2,2.346E3,1E0,6.7003E4,-1.0328337E3,5.2199036E2,2.1111133E3,5.239839E3,2.1814392E3,6.264967E3,1.244912E4,6.0194426E4],"split_indices":[142,66,135,92,66,141,130,0,0,0,0,0,0,0,0],"split_type":[0,0,0,0,0,0,0,0,0,0,0,0,0,0,0],"sum_hessian":[2.4873E4,2.2659E4,2.214E3,2.0721E4,1.938E3,1.822E3,3.92E2,1.8748E4,1.973E3,1.782E3,1.56E2,6.5E2,1.172E3,3.91E2,1E0],"tree_param":{"num_deleted":"0","num_feature":"144","num_nodes":"15","size_leaf_vector":"1"}},{"base_weights":[8.955165E0,-2.9179705E3,5.014855E4,-5.697274E3,1.2782971E4,4.0223324E4,8.563197E4,-9.0317053E2,5.2064813E2,1.341924E3,4.0084492E3,4.8194727E3,8.477896E3,9.898386E3,1.9217148E4],"categories":[],"categories_nodes":[],"categories_segments":[],"categories_sizes":[],"default_left":[0,0,0,0,0,0,0,0,0,0,0,0,0,0,0],"id":5,"left_children":[1,3,5,7,9,11,13,-1,-1,-1,-1,-1,-1,-1,-1],"loss_changes":[3.650527E12,1.0256893E12,4.7974738E11,1.4178956E11,1.7888405E11,1.2454199E11,2.207778E11,0E0,0E0,0E0,0E0,0E0,0E0,0E0,0E0],"parents":[2147483647,0,0,1,1,2,2,3,3,4,4,5,5,6,6],"right_children":[2,4,6,8,10,12,14,-1,-1,-1,-1,-1,-1,-1,-1],"split_conditions":[2.102E3,3.4E2,2.514E3,9.85E2,5E1,1.29E3,4.9E1,-9.0317053E2,5.2064813E2,1.341924E3,4.0084492E3,4.8194727E3,8.477896E3,9.898386E3,1.9217148E4],"split_indices":[135,142,135,47,141,142,133,0,0,0,0,0,0,0,0],"split_type":[0,0,0,0,0,0,0,0,0,0,0,0,0,0,0],"sum_hessian":[2.4873E4,2.3502E4,1.371E3,1.9968E4,3.534E3,1.073E3,2.98E2,1.8488E4,1.48E3,2.942E3,5.92E2,8.37E2,2.36E2,2.33E2,6.5E1],"tree_param":{"num_deleted":"0","num_feature":"144","num_nodes":"15","size_leaf_vector":"1"}},{"base_weights":[9.606103E0,-3.141463E3,3.507542E4,-5.011847E3,9.5996045E3,2.8133777E4,7.338594E4,-7.464192E2,1.7651768E3,2.1857544E3,5.052397E2,2.9838123E3,5.845058E3,8.917623E3,2.050081E4],"categories":[],"categories_nodes":[],"categories_segments":[],"categories_sizes":[],"default_left":[0,0,0,0,0,0,0,0,0,0,0,0,0,0,0],"id":6,"left_children":[1,3,5,7,9,11,13,-1,-1,-1,-1,-1,-1,-1,-1],"loss_changes":[2.7485578E12,5.4395974E11,5.4337418E11,1.1219124E11,1.051998E11,1.6053017E11,2.1290261E11,0E0,0E0,0E0,0E0,0E0,0E0,0E0,0E0],"parents":[2147483647,0,0,1,1,2,2,3,3,4,4,5,5,6,6],"right_children":[2,4,6,8,10,12,14,-1,-1,-1,-1,-1,-1,-1,-1],"split_conditions":[1.969E3,4.625E3,4.411E3,5.29E2,7E0,4.59E2,6.015242E10,-7.464192E2,1.7651768E3,2.1857544E3,5.052397E2,2.9838123E3,5.845058E3,8.917623E3,2.050081E4],"split_indices":[135,25,66,142,1,119,98,0,0,0,0,0,0,0,0],"split_type":[0,0,0,0,0,0,0,0,0,0,0,0,0,0,0],"sum_hessian":[2.4873E4,2.2823E4,2.05E3,1.9902E4,2.921E3,1.737E3,3.13E2,1.9548E4,3.54E2,1.457E3,1.464E3,1.159E3,5.78E2,2.78E2,3.5E1],"tree_param":{"num_deleted":"0","num_feature":"144","num_nodes":"15","size_leaf_vector":"1"}},{"base_weights":[9.948202E0,-2.954721E3,2.8161791E4,-4.72748E3,6.1033213E3,2.2105518E4,6.3525348E4,-7.9217596E2,-2.6378653E2,5.488475E2,3.234638E3,-2.7000718E3,3.4547578E3,8.606218E3,5.401138E4],"categories":[],"categories_nodes":[],"categories_segments":[],"categories_sizes":[],"default_left":[0,0,0,0,0,0,0,0,0,0,0,0,0,0,0],"id":7,"left_children":[1,3,5,7,9,11,13,-1,-1,-1,-1,-1,-1,-1,-1],"loss_changes":[2.0760895E12,3.6140797E11,5.0618198E11,4.9808867E10,1.3663517E11,2.1599971E11,2.0513384E11,0E0,0E0,0E0,0E0,0E0,0E0,0E0,0E0],"parents":[2147483647,0,0,1,1,2,2,3,3,4,4,5,5,6,6],"right_children":[2,4,6,8,10,12,14,-1,-1,-1,-1,-1,-1,-1,-1],"split_conditions":[1.622E3,2.63E2,2.474E3,2.45E3,1.919E3,9.37E2,6.7003E4,-7.9217596E2,-2.6378653E2,5.488475E2,3.234638E3,-2.7000718E3,3.4547578E3,8.606218E3,5.401138E4],"split_indices":[66,142,92,25,92,135,130,0,0,0,0,0,0,0,0],"split_type":[0,0,0,0,0,0,0,0,0,0,0,0,0,0,0],"sum_hessian":[2.4873E4,2.2504E4,2.369E3,1.8821E4,3.683E3,2.024E3,3.45E2,1.4178E4,4.643E3,3.265E3,4.18E2,1.18E2,1.906E3,3.44E2,1E0],"tree_param":{"num_deleted":"0","num_feature":"144","num_nodes":"15","size_leaf_vector":"1"}},{"base_weights":[1.1212699E1,-2.504041E3,2.5742877E4,-3.8919377E3,7.3495327E3,1.8463668E4,5.0868062E4,-6.004134E2,5.0341974E2,5.6163245E2,1.9490525E3,3.0102156E3,-2.2711118E3,6.933344E3,5.0230582E4],"categories":[],"categories_nodes":[],"categories_segments":[],"categories_sizes":[],"default_left":[0,0,0,0,0,0,0,0,0,0,0,0,0,0,0],"id":8,"left_children":[1,3,5,7,9,11,13,-1,-1,-1,-1,-1,-1,-1,-1],"loss_changes":[1.6099511E12,3.0992092E11,4.0416536E11,5.9020968E10,6.1325E10,1.8148203E11,1.8794047E11,0E0,0E0,0E0,0E0,0E0,0E0,0E0,0E0],"parents":[2147483647,0,0,1,1,2,2,3,3,4,4,5,5,6,6],"right_children":[2,4,6,8,10,12,14,-1,-1,-1,-1,-1,-1,-1,-1],"split_conditions":[6.81E2,4.713E3,8.2E1,6.89E2,3.09808E5,3.5085E4,6.7003E4,-6.004134E2,5.0341974E2,5.6163245E2,1.9490525E3,3.0102156E3,-2.2711118E3,6.933344E3,5.0230582E4],"split_indices":[142,25,48,45,111,10,130,0,0,0,0,0,0,0,0],"split_type":[0,0,0,0,0,0,0,0,0,0,0,0,0,0,0],"sum_hessian":[2.4873E4,2.2659E4,2.214E3,1.9862E4,2.797E3,1.718E3,4.96E2,1.8863E4,9.99E2,1.856E3,9.41E2,1.58E3,1.38E2,4.95E2,1E0],"tree_param":{"num_deleted":"0","num_feature":"144","num_nodes":"15","size_leaf_vector":"1"}},{"base_weights":[1.2067905E1,-1.6283282E3,3.0501469E4,-3.8286328E3,5.0503447E3,2.6708703E4,7.276741E4,-5.8260425E2,-1.0814273E2,3.895611E1,1.217575E3,3.3811448E3,7.5679204E3,7.0001305E4,8.328328E3],"categories":[],"categories_nodes":[],"categories_segments":[],"categories_sizes":[],"default_left":[0,0,0,0,0,0,0,0,0,0,0,0,0,0,0],"id":9,"left_children":[1,3,5,7,9,11,13,-1,-1,-1,-1,-1,-1,-1,-1],"loss_changes":[1.2441152E12,3.468975E11,2.0164366E11,1.8057822E10,1.017992E11,8.032236E10,5.6029866E11,0E0,0E0,0E0,0E0,0E0,0E0,0E0,0E0],"parents":[2147483647,0,0,1,1,2,2,3,3,4,4,5,5,6,6],"right_children":[2,4,6,8,10,12,14,-1,-1,-1,-1,-1,-1,-1,-1],"split_conditions":[2.133E3,5.11E2,2.715E3,5.58E2,8E1,2.275E3,1.6E1,-5.8260425E2,-1.0814273E2,3.895611E1,1.217575E3,3.3811448E3,7.5679204E3,7.0001305E4,8.328328E3],"split_indices":[135,92,135,66,29,70,53,0,0,0,0,0,0,0,0],"split_type":[0,0,0,0,0,0,0,0,0,0,0,0,0,0,0],"sum_hessian":[2.4873E4,2.3604E4,1.269E3,1.7755E4,5.849E3,1.166E3,1.03E2,1.6011E4,1.744E3,2.534E3,3.315E3,1.068E3,9.8E1,2E0,1.01E2],"tree_param":{"num_deleted":"0","num_feature":"144","num_nodes":"15","size_leaf_vector":"1"}},{"base_weights":[1.3990182E1,-1.2310004E3,3.040243E4,-2.5038247E3,8.812362E3,2.9557201E4,2.2903762E5,-4.043509E2,1.1039401E3,9.436806E2,3.5052302E3,3.4277673E3,8.774799E3,5.3387434E4,7.1620674E3],"categories":[],"categories_nodes":[],"categories_segments":[],"categories_sizes":[],"default_left":[0,0,0,0,0,0,0,0,0,0,0,0,0,0,0],"id":10,"left_children":[1,3,5,7,9,11,13,-1,-1,-1,-1,-1,-1,-1,-1],"loss_changes":[9.4110345E11,3.05495E11,1.5759678E11,8.472162E10,9.018761E10,1.6245516E11,8.885695E10,0E0,0E0,0E0,0E0,0E0,0E0,0E0,0E0],"parents":[2147483647,0,0,1,1,2,2,3,3,4,4,5,5,6,6],"right_children":[2,4,6,8,10,12,14,-1,-1,-1,-1,-1,-1,-1,-1],"split_conditions":[2.232E3,4.6E2,5.54E2,1.275E3,1.176372E6,2.935E3,9.681583E6,-4.043509E2,1.1039401E3,9.436806E2,3.5052302E3,3.4277673E3,8.774799E3,5.3387434E4,7.1620674E3],"split_indices":[135,142,83,66,111,106,0,0,0,0,0,0,0,0,0],"split_type":[0,0,0,0,0,0,0,0,0,0,0,0,0,0,0],"sum_hessian":[2.4873E4,2.3895E4,9.78E2,2.1208E4,2.687E3,9.75E2,3E0,2.0452E4,7.56E2,2.384E3,3.03E2,8.47E2,1.28E2,1E0,2E0],"tree_param":{"num_deleted":"0","num_feature":"144","num_nodes":"15","size_leaf_vector":"1"}},{"base_weights":[1.5163511E1,-1.8476449E3,1.5704379E4,-2.961493E3,2.4478477E3,1.0870868E4,3.4701895E4,-4.2313416E2,1.3739099E3,8.415801E2,-2.813779E2,1.4014506E3,6.657913E3,4.7130557E3,4.1200113E4],"categories":[],"categories_nodes":[],"categories_segments":[],"categories_sizes":[],"default_left":[0,0,0,0,0,0,0,0,0,0,0,0,0,0,0],"id":11,"left_children":[1,3,5,7,9,11,13,-1,-1,-1,-1,-1,-1,-1,-1],"loss_changes":[7.269966E11,1.0639117E11,2.4203998E11,1.3765526E10,7.274814E10,6.6006663E10,1.3413863E11,0E0,0E0,0E0,0E0,0E0,0E0,0E0,0E0],"parents":[2147483647,0,0,1,1,2,2,3,3,4,4,5,5,6,6],"right_children":[2,4,6,8,10,12,14,-1,-1,-1,-1,-1,-1,-1,-1],"split_conditions":[1.886E3,5.19E2,1.29E3,2.1033E4,1E0,8.9E1,6.7003E4,-4.2313416E2,1.3739099E3,8.415801E2,-2.813779E2,1.4014506E3,6.657913E3,4.7130557E3,4.1200113E4],"split_indices":[135,92,142,136,1,61,130,0,0,0,0,0,0,0,0],"split_type":[0,0,0,0,0,0,0,0,0,0,0,0,0,0,0],"sum_hessian":[2.4873E4,2.2234E4,2.639E3,1.7656E4,4.578E3,2.105E3,5.34E2,1.7573E4,8.3E1,2.544E3,2.034E3,2.058E3,4.7E1,5.33E2,1E0],"tree_param":{"num_deleted":"0","num_feature":"144","num_nodes":"15","size_leaf_vector":"1"}},{"base_weights":[1.5271075E1,-1.1726521E3,1.9636906E4,-2.0717048E3,6.4526904E3,1.7288535E4,7.079498E4,-3.4207474E2,6.0352E2,1.1120206E3,-1.7618525E3,2.365747E3,3.8316105E4,7.0711533E3,4.087469E4],"categories":[],"categories_nodes":[],"categories_segments":[],"categories_sizes":[],"default_left":[0,0,0,0,0,0,0,0,0,0,0,0,0,0,0],"id":12,"left_children":[1,3,5,7,9,11,13,-1,-1,-1,-1,-1,-1,-1,-1],"loss_changes":[5.7981095E11,1.6081112E11,1.6937219E11,4.97863E10,7.029137E10,1.3138782E11,2.6343257E11,0E0,0E0,0E0,0E0,0E0,0E0,0E0,0E0],"parents":[2147483647,0,0,1,1,2,2,3,3,4,4,5,5,6,6],"right_children":[2,4,6,8,10,12,14,-1,-1,-1,-1,-1,-1,-1,-1],"split_conditions":[9.20171E5,1.275E3,6.015242E10,6.96E2,2.3642E4,6.7003E4,8.2E1,-3.4207474E2,6.0352E2,1.1120206E3,-1.7618525E3,2.365747E3,3.8316105E4,7.0711533E3,4.087469E4],"split_indices":[111,66,98,45,10,130,83,0,0,0,0,0,0,0,0],"split_type":[0,0,0,0,0,0,0,0,0,0,0,0,0,0,0],"sum_hessian":[2.4873E4,2.3454E4,1.419E3,2.0981E4,2.473E3,1.358E3,6.1E1,1.9827E4,1.154E3,2.294E3,1.79E2,1.357E3,1E0,5.7E1,4E0],"tree_param":{"num_deleted":"0","num_feature":"144","num_nodes":"15","size_leaf_vector":"1"}},{"base_weights":[1.6680492E1,-7.681511E2,2.3098193E4,-1.9221469E3,4.921234E3,2.2503385E4,3.563398E4,-3.0653574E2,4.0820422E2,5.3074243E2,2.3899011E3,2.5380334E3,7.516291E3],"categories":[],"categories_nodes":[],"categories_segments":[],"categories_sizes":[],"default_left":[0,0,0,0,0,0,0,0,0,0,0,0,0],"id":13,"left_children":[1,3,5,7,9,11,-1,-1,-1,-1,-1,-1,-1],"loss_changes":[4.506128E11,1.5795631E11,1.0687539E11,2.5880158E10,5.564421E10,1.10480654E11,0E0,0E0,0E0,0E0,0E0,0E0,0E0],"parents":[2147483647,0,0,1,1,2,2,3,3,4,4,5,5],"right_children":[2,4,6,8,10,12,-1,-1,-1,-1,-1,-1,-1],"split_conditions":[3.023E3,4.713E3,6.7003E4,6.89E2,1.421349E6,6E0,3.563398E4,-3.0653574E2,4.0820422E2,5.3074243E2,2.3899011E3,2.5380334E3,7.516291E3],"split_indices":[66,25,130,45,111,44,0,0,0,0,0,0,0],"split_type":[0,0,0,0,0,0,0,0,0,0,0,0,0],"sum_hessian":[2.4873E4,2.4056E4,8.17E2,2E4,4.056E3,8.16E2,1E0,1.8953E4,1.047E3,3.712E3,3.44E2,7.17E2,9.9E1],"tree_param":{"num_deleted":"0","num_feature":"144","num_nodes":"13","size_leaf_vector":"1"}},{"base_weights":[1.6303547E1,-7.3925684E2,1.8458443E4,-1.5604205E3,5.2701006E3,1.768054E4,2.0365253E5,-2.6175964E2,6.3894977E2,6.680383E1,1.3375656E3,2.4098357E3,3.31396E4,4.8977133E4,5.3637173E3],"categories":[],"categories_nodes":[],"categories_segments":[],"categories_sizes":[],"default_left":[0,0,0,0,0,0,0,0,0,0,0,0,0,0,0],"id":14,"left_children":[1,3,5,7,9,11,13,-1,-1,-1,-1,-1,-1,-1,-1],"loss_changes":[3.4661174E11,1.17927E11,1.3743728E11,3.983234E10,5.8985677E10,9.584948E10,8.327746E10,0E0,0E0,0E0,0E0,0E0,0E0,0E0,0E0],"parents":[2147483647,0,0,1,1,2,2,3,3,4,4,5,5,6,6],"right_children":[2,4,6,8,10,12,14,-1,-1,-1,-1,-1,-1,-1,-1],"split_conditions":[2.232E3,1.075E3,5.54E2,1.376E3,1.632E3,6.7003E4,9.681583E6,-2.6175964E2,6.3894977E2,6.680383E1,1.3375656E3,2.4098357E3,3.31396E4,4.8977133E4,5.3637173E3],"split_indices":[135,92,83,66,135,130,0,0,0,0,0,0,0,0,0],"split_type":[0,0,0,0,0,0,0,0,0,0,0,0,0,0,0],"sum_hessian":[2.4873E4,2.3895E4,9.78E2,2.1023E4,2.872E3,9.75E2,3E0,2.0013E4,1.01E3,1.356E3,1.516E3,9.74E2,1E0,1E0,2E0],"tree_param":{"num_deleted":"0","num_feature":"144","num_nodes":"15","size_leaf_vector":"1"}},{"base_weights":[1.7706656E1,-5.405957E2,1.9441785E4,-1.3289727E3,4.9359907E3,1.8435166E4,1.8872639E5,-2.254954E2,5.4024567E2,8.479061E2,-1.655735E3,2.4954546E3,3.081983E4,4.5548734E4,4.8631035E3],"categories":[],"categories_nodes":[],"categories_segments":[],"categories_sizes":[],"default_left":[0,0,0,0,0,0,0,0,0,0,0,0,0,0,0],"id":15,"left_children":[1,3,5,7,9,11,13,-1,-1,-1,-1,-1,-1,-1,-1],"loss_changes":[2.6975683E11,1.0440648E11,1.1495231E11,3.0898745E10,5.7226043E10,8.1288675E10,7.285203E10,0E0,0E0,0E0,0E0,0E0,0E0,0E0,0E0],"parents":[2147483647,0,0,1,1,2,2,3,3,4,4,5,5,6,6],"right_children":[2,4,6,8,10,12,14,-1,-1,-1,-1,-1,-1,-1,-1],"split_conditions":[2.318E3,1.108E3,5.54E2,1.376E3,2.3642E4,6.7003E4,9.681583E6,-2.254954E2,5.4024567E2,8.479061E2,-1.655735E3,2.4954546E3,3.081983E4,4.5548734E4,4.8631035E3],"split_indices":[135,92,83,66,10,130,0,0,0,0,0,0,0,0,0],"split_type":[0,0,0,0,0,0,0,0,0,0,0,0,0,0,0],"sum_hessian":[2.4873E4,2.4179E4,6.94E2,2.1137E4,3.042E3,6.91E2,3E0,2.0049E4,1.088E3,2.852E3,1.9E2,6.9E2,1E0,1E0,2E0],"tree_param":{"num_deleted":"0","num_feature":"144","num_nodes":"15","size_leaf_vector":"1"}},{"base_weights":[1.8573988E1,-5.945318E2,1.4342772E4,-1.1954026E3,4.094032E3,1.3713997E4,2.231358E5,-1.5346898E2,-1.8598365E3,3.7776736E3,4.6290924E2,1.4589855E3,5.4274062E3,4.378488E4,3.0736409E3],"categories":[],"categories_nodes":[],"categories_segments":[],"categories_sizes":[],"default_left":[0,0,0,0,0,0,0,0,0,0,0,0,0,0,0],"id":16,"left_children":[1,3,5,7,9,11,13,-1,-1,-1,-1,-1,-1,-1,-1],"loss_changes":[2.1845818E11,6.7206885E10,1.30980725E11,2.5342302E10,4.876184E10,8.3655295E10,4.7219278E10,0E0,0E0,0E0,0E0,0E0,0E0,0E0,0E0],"parents":[2147483647,0,0,1,1,2,2,3,3,4,4,5,5,6,6],"right_children":[2,4,6,8,10,12,14,-1,-1,-1,-1,-1,-1,-1,-1],"split_conditions":[1.2484E6,1.786E3,1.55487E5,3.2E2,8.9E1,3.98231E9,2.87E2,-1.5346898E2,-1.8598365E3,3.7776736E3,4.6290924E2,1.4589855E3,5.4274062E3,4.378488E4,3.0736409E3],"split_indices":[111,135,3,12,104,118,1,0,0,0,0,0,0,0,0],"split_type":[0,0,0,0,0,0,0,0,0,0,0,0,0,0,0],"sum_hessian":[2.4873E4,2.3853E4,1.02E3,2.1144E4,2.709E3,1.018E3,2E0,2.0973E4,1.71E2,8.9E1,2.62E3,9.01E2,1.17E2,1E0,1E0],"tree_param":{"num_deleted":"0","num_feature":"144","num_nodes":"15","size_leaf_vector":"1"}},{"base_weights":[1.822387E1,-8.164611E2,8.55725E3,-1.0690139E3,7.7778433E3,8.259928E3,1.7083708E5,-1.835002E2,5.910306E2,1.01953564E3,2.2948496E4,9.0831195E2,4.6099346E3,4.19804E4,3.9026553E3],"categories":[],"categories_nodes":[],"categories_segments":[],"categories_sizes":[],"default_left":[0,0,0,0,0,0,0,0,0,0,0,0,0,0,0],"id":17,"left_children":[1,3,5,7,9,11,13,-1,-1,-1,-1,-1,-1,-1,-1],"loss_changes":[1.7729387E11,4.9192206E10,1.054613E11,2.81562E10,4.8857465E10,9.647653E10,6.542204E10,0E0,0E0,0E0,0E0,0E0,0E0,0E0,0E0],"parents":[2147483647,0,0,1,1,2,2,3,3,4,4,5,5,6,6],"right_children":[2,4,6,8,10,12,14,-1,-1,-1,-1,-1,-1,-1,-1],"split_conditions":[6.81E2,1.372279E10,5.54E2,4E1,5.17E2,4E0,9.681583E6,-1.835002E2,5.910306E2,1.01953564E3,2.2948496E4,9.0831195E2,4.6099346E3,4.19804E4,3.9026553E3],"split_indices":[142,98,83,34,119,44,0,0,0,0,0,0,0,0,0],"split_type":[0,0,0,0,0,0,0,0,0,0,0,0,0,0,0],"sum_hessian":[2.4873E4,2.2659E4,2.214E3,2.2013E4,6.46E2,2.211E3,3E0,2.1052E4,9.61E2,6.45E2,1E0,2.064E3,1.47E2,1E0,2E0],"tree_param":{"num_deleted":"0","num_feature":"144","num_nodes":"15","size_leaf_vector":"1"}},{"base_weights":[1.8718876E1,-8.171343E2,6.699796E3,-1.0105855E3,6.2403027E3,6.554987E3,2.8496729E4,-1.2463759E2,-1.2677496E3,8.029051E2,1.4446947E4,7.897085E2,5.0958276E3],"categories":[],"categories_nodes":[],"categories_segments":[],"categories_sizes":[],"default_left":[0,0,0,0,0,0,0,0,0,0,0,0,0],"id":18,"left_children":[1,3,5,7,9,11,-1,-1,-1,-1,-1,-1,-1],"loss_changes":[1.3891181E11,3.0191063E10,7.751157E10,2.0821637E10,2.831034E10,7.52337E10,0E0,0E0,0E0,0E0,0E0,0E0,0E0],"parents":[2147483647,0,0,1,1,2,2,3,3,4,4,5,5],"right_children":[2,4,6,8,10,12,-1,-1,-1,-1,-1,-1,-1],"split_conditions":[1.358E3,1.4364892E10,6.7003E4,9.499E3,1.279E3,1.5E1,2.8496729E4,-1.2463759E2,-1.2677496E3,8.029051E2,1.4446947E4,7.897085E2,5.0958276E3],"split_indices":[92,98,130,10,69,44,0,0,0,0,0,0,0],"split_type":[0,0,0,0,0,0,0,0,0,0,0,0,0],"sum_hessian":[2.4873E4,2.2108E4,2.765E3,2.1519E4,5.89E2,2.764E3,1E0,2.1203E4,3.16E2,5.87E2,2E0,2.683E3,8.1E1],"tree_param":{"num_deleted":"0","num_feature":"144","num_nodes":"13","size_leaf_vector":"1"}},{"base_weights":[1.8037552E1,-2.8236713E2,1.5030231E4,-1.0460538E3,2.6604285E3,1.3830651E4,1.5672184E5,-1.4849228E2,1.3098565E4,4.420076E2,-1.9064397E3,5.193162E3,1.0661423E3,3.8986492E4,3.2637493E3],"categories":[],"categories_nodes":[],"categories_segments":[],"categories_sizes":[],"default_left":[0,0,0,0,0,0,0,0,0,0,0,0,0,0,0],"id":19,"left_children":[1,3,5,7,9,11,13,-1,-1,-1,-1,-1,-1,-1,-1],"loss_changes":[1.12179356E11,5.4809485E10,8.077804E10,2.6854625E10,4.0676782E10,6.984364E10,5.848006E10,0E0,0E0,0E0,0E0,0E0,0E0,0E0,0E0],"parents":[2147483647,0,0,1,1,2,2,3,3,4,4,5,5,6,6],"right_children":[2,4,6,8,10,12,14,-1,-1,-1,-1,-1,-1,-1,-1],"split_conditions":[8.6E1,4.4E2,5.54E2,1.045E3,2.3642E4,4.5795E6,9.681583E6,-1.4849228E2,1.3098565E4,4.420076E2,-1.9064397E3,5.193162E3,1.0661423E3,3.8986492E4,3.2637493E3],"split_indices":[48,45,83,13,10,33,0,0,0,0,0,0,0,0,0],"split_type":[0,0,0,0,0,0,0,0,0,0,0,0,0,0,0],"sum_hessian":[2.4873E4,2.4386E4,4.87E2,1.9362E4,5.024E3,4.84E2,3E0,1.936E4,2E0,4.876E3,1.48E2,1.01E2,3.83E2,1E0,2E0],"tree_param":{"num_deleted":"0","num_feature":"144","num_nodes":"15","size_leaf_vector":"1"}},{"base_weights":[1.7924242E1,-1.7629645E2,2.046995E4,-8.0350934E2,3.5662832E3,1.531237E4,1.8553542E5,-1.18070465E2,3.6840652E3,4.763631E2,1.3906276E4,1.6114891E3,1.8717182E4,4.38118E4,1.6443782E3],"categories":[],"categories_nodes":[],"categories_segments":[],"categories_sizes":[],"default_left":[0,0,0,0,0,0,0,0,0,0,0,0,0,0,0],"id":20,"left_children":[1,3,5,7,9,11,13,-1,-1,-1,-1,-1,-1,-1,-1],"loss_changes":[9.8808275E10,5.7845006E10,1.9637217E11,2.2830227E10,5.510668E10,1.0107388E11,1.5131746E11,0E0,0E0,0E0,0E0,0E0,0E0,0E0,0E0],"parents":[2147483647,0,0,1,1,2,2,3,3,4,4,5,5,6,6],"right_children":[2,4,6,8,10,12,14,-1,-1,-1,-1,-1,-1,-1,-1],"split_conditions":[2.529E3,2.4E1,1.3728E4,1.05E3,5.54E2,1.279E3,1.726E3,-1.18070465E2,3.6840652E3,4.763631E2,1.3906276E4,1.6114891E3,1.8717182E4,4.38118E4,1.6443782E3],"split_indices":[106,34,104,116,83,69,1,0,0,0,0,0,0,0,0],"split_type":[0,0,0,0,0,0,0,0,0,0,0,0,0,0,0],"sum_hessian":[2.4873E4,2.464E4,2.33E2,2.1104E4,3.536E3,2.27E2,6E0,2.1074E4,3E1,3.531E3,5E0,2.21E2,6E0,3E0,3E0],"tree_param":{"num_deleted":"0","num_feature":"144","num_nodes":"15","size_leaf_vector":"1"}},{"base_weights":[1.8781267E1,-6.262316E2,5.061353E3,-6.479543E2,1.592586E5,4.1317236E3,3.2592082E4,-1.1583298E2,6.180059E2,3.5284E4,-1.8396952E3,7.318069E2,-1.8101307E3,4.5377062E4,3.615735E3],"categories":[],"categories_nodes":[],"categories_segments":[],"categories_sizes":[],"default_left":[0,0,0,0,0,0,0,0,0,0,0,0,0,0,0],"id":21,"left_children":[1,3,5,7,9,11,13,-1,-1,-1,-1,-1,-1,-1,-1],"loss_changes":[8.0906445E10,7.6699484E10,7.206426E10,2.0033389E10,5.129226E10,5.109137E10,1.7308212E11,0E0,0E0,0E0,0E0,0E0,0E0,0E0,0E0],"parents":[2147483647,0,0,1,1,2,2,3,3,4,4,5,5,6,6],"right_children":[2,4,6,8,10,12,14,-1,-1,-1,-1,-1,-1,-1,-1],"split_conditions":[8.5875876E9,5.52E2,3.465E3,3.14E2,9.681583E6,3.5085E4,3E0,-1.1583298E2,6.180059E2,3.5284E4,-1.8396952E3,7.318069E2,-1.8101307E3,4.5377062E4,3.615735E3],"split_indices":[98,119,106,122,0,10,8,0,0,0,0,0,0,0,0],"split_type":[0,0,0,0,0,0,0,0,0,0,0,0,0,0,0],"sum_hessian":[2.4873E4,2.2053E4,2.82E3,2.2051E4,2E0,2.729E3,9.1E1,2.1297E4,7.54E2,1E0,1E0,2.565E3,1.64E2,1E0,9E1],"tree_param":{"num_deleted":"0","num_feature":"144","num_nodes":"15","size_leaf_vector":"1"}},{"base_weights":[1.9442783E1,-3.837705E2,6.9533994E3,-1.0835613E3,1.02347833E3,5.5048726E3,3.89732E4,-1.3511552E2,-7.403142E2,6.2948E2,-2.8776695E1,7.3186383E2,2.5772525E4,3.1946893E4,2.9488032E3],"categories":[],"categories_nodes":[],"categories_segments":[],"categories_sizes":[],"default_left":[0,0,0,0,0,0,0,0,0,0,0,0,0,0,0],"id":22,"left_children":[1,3,5,7,9,11,13,-1,-1,-1,-1,-1,-1,-1,-1],"loss_changes":[6.9546975E10,2.3151313E10,6.318902E10,7.814189E9,3.33268E10,6.3855178E10,1.951429E11,0E0,0E0,0E0,0E0,0E0,0E0,0E0,0E0],"parents":[2147483647,0,0,1,1,2,2,3,3,4,4,5,5,6,6],"right_children":[2,4,6,8,10,12,14,-1,-1,-1,-1,-1,-1,-1,-1],"split_conditions":[9.6E1,6.5E1,6.015242E10,4.173E3,2.082121E6,6.7003E4,2.266553E6,-1.3511552E2,-7.403142E2,6.2948E2,-2.8776695E1,7.3186383E2,2.5772525E4,3.1946893E4,2.9488032E3],"split_indices":[141,29,98,25,143,130,33,0,0,0,0,0,0,0,0],"split_type":[0,0,0,0,0,0,0,0,0,0,0,0,0,0,0],"sum_hessian":[2.4873E4,2.3507E4,1.366E3,1.57E4,7.807E3,1.308E3,5.8E1,1.5271E4,4.29E2,2.04E3,5.767E3,1.307E3,1E0,4E0,5.4E1],"tree_param":{"num_deleted":"0","num_feature":"144","num_nodes":"15","size_leaf_vector":"1"}},{"base_weights":[1.9178165E1,5.4127464E0,2.3968451E4,-4.5085602E2,4.78886E3,-6.6548256E1,5.4990835E3,6.236844E2,1.5002211E4],"categories":[],"categories_nodes":[],"categories_segments":[],"categories_sizes":[],"default_left":[0,0,0,0,0,0,0,0,0],"id":23,"left_children":[1,3,-1,5,7,-1,-1,-1,-1],"loss_changes":[5.8612662E10,5.4288413E10,0E0,2.2112057E10,7.357501E10,0E0,0E0,0E0,0E0],"parents":[2147483647,0,0,1,1,3,3,4,4],"right_children":[2,4,-1,6,8,-1,-1,-1,-1],"split_conditions":[6.7003E4,4.4E1,2.3968451E4,1.9E1,1.518E3,-6.6548256E1,5.4990835E3,6.236844E2,1.5002211E4],"split_indices":[130,34,0,44,134,0,0,0,0],"split_type":[0,0,0,0,0,0,0,0,0],"sum_hessian":[2.4873E4,2.4872E4,1E0,2.2707E4,2.165E3,2.2694E4,1.3E1,2.159E3,6E0],"tree_param":{"num_deleted":"0","num_feature":"144","num_nodes":"9","size_leaf_vector":"1"}},{"base_weights":[1.8303228E1,5.501407E0,2.229066E4,-3.4127652E2,5.49877E3,-5.077102E1,7.7338696E3,6.5206085E2,7.0702007E3],"categories":[],"categories_nodes":[],"categories_segments":[],"categories_sizes":[],"default_left":[0,0,0,0,0,0,0,0,0],"id":24,"left_children":[1,3,-1,5,7,-1,-1,-1,-1],"loss_changes":[5.0693804E10,4.7383556E10,0E0,2.7816002E10,5.567797E10,0E0,0E0,0E0,0E0],"parents":[2147483647,0,0,1,1,3,3,4,4],"right_children":[2,4,-1,6,8,-1,-1,-1,-1],"split_conditions":[6.7003E4,1.5154758E10,2.229066E4,1.75E2,1.279E3,-5.077102E1,7.7338696E3,6.5206085E2,7.0702007E3],"split_indices":[130,98,0,48,69,0,0,0,0],"split_type":[0,0,0,0,0,0,0,0,0],"sum_hessian":[2.4873E4,2.4872E4,1E0,2.3396E4,1.476E3,2.3388E4,8E0,1.45E3,2.6E1],"tree_param":{"num_deleted":"0","num_feature":"144","num_nodes":"9","size_leaf_vector":"1"}},{"base_weights":[1.7256159E1,5.3504767E0,2.0730312E4,-4.216627E2,3.889019E3,-4.1062443E1,-1.4060593E3,4.5370602E2,3.8871016E3],"categories":[],"categories_nodes":[],"categories_segments":[],"categories_sizes":[],"default_left":[0,0,0,0,0,0,0,0,0],"id":25,"left_children":[1,3,-1,5,7,-1,-1,-1,-1],"loss_changes":[4.3844923E10,4.1250468E10,0E0,2.7673995E10,3.8047556E10,0E0,0E0,0E0,0E0],"parents":[2147483647,0,0,1,1,3,3,4,4],"right_children":[2,4,-1,6,8,-1,-1,-1,-1],"split_conditions":[6.7003E4,2.2E1,2.0730312E4,6.08E3,6.015242E10,-4.1062443E1,-1.4060593E3,4.5370602E2,3.8871016E3],"split_indices":[130,141,0,77,98,0,0,0,0],"split_type":[0,0,0,0,0,0,0,0,0],"sum_hessian":[2.4873E4,2.4872E4,1E0,2.2409E4,2.463E3,2.2115E4,2.94E2,2.399E3,6.4E1],"tree_param":{"num_deleted":"0","num_feature":"144","num_nodes":"9","size_leaf_vector":"1"}},{"base_weights":[1.5790206E1,4.7179103E0,1.927919E4,-5.0365076E2,2.7537314E3,-9.379365E1,4.7996347E2,3.669849E2,1.4686099E4],"categories":[],"categories_nodes":[],"categories_segments":[],"categories_sizes":[],"default_left":[0,0,0,0,0,0,0,0,0],"id":26,"left_children":[1,3,-1,5,7,-1,-1,-1,-1],"loss_changes":[3.792161E10,3.4761708E10,0E0,1.3728979E10,5.223043E10,0E0,0E0,0E0,0E0],"parents":[2147483647,0,0,1,1,3,3,4,4],"right_children":[2,4,-1,6,8,-1,-1,-1,-1],"split_conditions":[6.7003E4,1.04E2,1.927919E4,1.92E2,5.54E2,-9.379365E1,4.7996347E2,3.669849E2,1.4686099E4],"split_indices":[130,30,0,79,83,0,0,0,0],"split_type":[0,0,0,0,0,0,0,0,0],"sum_hessian":[2.4873E4,2.4872E4,1E0,2.0991E4,3.881E3,2.014E4,8.51E2,3.877E3,4E0],"tree_param":{"num_deleted":"0","num_feature":"144","num_nodes":"9","size_leaf_vector":"1"}},{"base_weights":[1.4975429E1,-1.00119804E2,1.2134833E4,-1.3954865E2,3.2250633E4,7.824329E3,1.5080056E5,-1.2965518E0,-9.9230743E2,2.1278617E4,-1.5120125E3,1.0080942E4,5.0520642E2,3.732408E4,-3.7794476E2],"categories":[],"categories_nodes":[],"categories_segments":[],"categories_sizes":[],"default_left":[0,0,0,0,0,0,0,0,0,0,0,0,0,0,0],"id":27,"left_children":[1,3,5,7,9,11,13,-1,-1,-1,-1,-1,-1,-1,-1],"loss_changes":[3.46989E10,3.1435387E10,1.3868637E11,2.228081E10,1.5628766E11,6.143115E10,1.2514697E11,0E0,0E0,0E0,0E0,0E0,0E0,0E0,0E0],"parents":[2147483647,0,0,1,1,2,2,3,3,4,4,5,5,6,6],"right_children":[2,4,6,8,10,12,14,-1,-1,-1,-1,-1,-1,-1,-1],"split_conditions":[2.529E3,1.68E2,1.3728E4,1.5679E4,2.464E3,2.0269E4,1.726E3,-1.2965518E0,-9.9230743E2,2.1278617E4,-1.5120125E3,1.0080942E4,5.0520642E2,3.732408E4,-3.7794476E2],"split_indices":[106,48,104,10,77,4,1,0,0,0,0,0,0,0,0],"split_type":[0,0,0,0,0,0,0,0,0,0,0,0,0,0,0],"sum_hessian":[2.4873E4,2.464E4,2.33E2,2.4611E4,2.9E1,2.27E2,6E0,2.4159E4,4.52E2,7E0,2.2E1,1.3E1,2.14E2,3E0,3E0],"tree_param":{"num_deleted":"0","num_feature":"144","num_nodes":"15","size_leaf_vector":"1"}},{"base_weights":[1.5544604E1,5.267714E0,1.7894283E4,-5.305521E1,2.1599469E4,-4.981343E1,4.1648895E2,3.7415863E4,1.9359287E3],"categories":[],"categories_nodes":[],"categories_segments":[],"categories_sizes":[],"default_left":[0,0,0,0,0,0,0,0,0],"id":28,"left_children":[1,3,-1,5,7,-1,-1,-1,-1],"loss_changes":[3.2668699E10,3.1327123E10,0E0,2.2742501E10,1.2421394E11,0E0,0E0,0E0,0E0],"parents":[2147483647,0,0,1,1,3,3,4,4],"right_children":[2,4,-1,6,8,-1,-1,-1,-1],"split_conditions":[6.7003E4,1.276E3,1.7894283E4,4.1E1,2.0269E4,-4.981343E1,4.1648895E2,3.7415863E4,1.9359287E3],"split_indices":[130,116,0,34,4,0,0,0,0],"split_type":[0,0,0,0,0,0,0,0,0],"sum_hessian":[2.4873E4,2.4872E4,1E0,2.4806E4,6.6E1,2.2552E4,2.254E3,1E0,6.5E1],"tree_param":{"num_deleted":"0","num_feature":"144","num_nodes":"9","size_leaf_vector":"1"}},{"base_weights":[1.5684427E1,-1.4109749E2,7.5968677E3,-1.5799835E2,8.2251805E4,5.609628E3,8.222188E4,-8.52626E0,-1.2490675E3,-4.0564017E2,2.9599412E4,5.554067E2,5.916154E3,5.1529383E4,-4.494843E2],"categories":[],"categories_nodes":[],"categories_segments":[],"categories_sizes":[],"default_left":[0,0,0,0,0,0,0,0,0,0,0,0,0,0,0],"id":29,"left_children":[1,3,5,7,9,11,13,-1,-1,-1,-1,-1,-1,-1,-1],"loss_changes":[2.9566122E10,3.3949895E10,7.428086E10,2.073444E10,5.5607312E10,2.9447344E10,3.1864763E11,0E0,0E0,0E0,0E0,0E0,0E0,0E0,0E0],"parents":[2147483647,0,0,1,1,2,2,3,3,4,4,5,5,6,6],"right_children":[2,4,6,8,10,12,14,-1,-1,-1,-1,-1,-1,-1,-1],"split_conditions":[2.1832E4,3.1457E4,1.041E3,2.0417E4,2.6066E4,7.264E3,4.3708E4,-8.52626E0,-1.2490675E3,-4.0564017E2,2.9599412E4,5.554067E2,5.916154E3,5.1529383E4,-4.494843E2],"split_indices":[136,117,68,10,4,91,4,0,0,0,0,0,0,0,0],"split_type":[0,0,0,0,0,0,0,0,0,0,0,0,0,0,0],"sum_hessian":[2.4873E4,2.437E4,5.03E2,2.4366E4,4E0,4.91E2,1.2E1,2.41E4,2.66E2,3E0,1E0,4.71E2,2E1,2E0,1E1],"tree_param":{"num_deleted":"0","num_feature":"144","num_nodes":"15","size_leaf_vector":"1"}},{"base_weights":[1.6925404E1,7.3903275E0,1.66028E4,-5.206572E2,1.8061182E3,-6.113331E1,-1.3602538E3,1.3465876E3,1.1223653E2],"categories":[],"categories_nodes":[],"categories_segments":[],"categories_sizes":[],"default_left":[0,0,0,0,0,0,0,0,0],"id":30,"left_children":[1,3,-1,5,7,-1,-1,-1,-1],"loss_changes":[2.8122092E10,2.362566E10,0E0,1.4846926E10,4.42884E10,0E0,0E0,0E0,0E0],"parents":[2147483647,0,0,1,1,3,3,4,4],"right_children":[2,4,-1,6,8,-1,-1,-1,-1],"split_conditions":[6.7003E4,1.619E3,1.66028E4,2.81E2,1E0,-6.113331E1,-1.3602538E3,1.3465876E3,1.1223653E2],"split_indices":[130,135,0,12,1,0,0,0,0],"split_type":[0,0,0,0,0,0,0,0,0],"sum_hessian":[2.4873E4,2.4872E4,1E0,1.9228E4,5.644E3,1.9055E4,1.73E2,6.42E2,5.002E3],"tree_param":{"num_deleted":"0","num_feature":"144","num_nodes":"9","size_leaf_vector":"1"}},{"base_weights":[1.5224893E1,6.357251E0,1.54406045E4,-2.3227284E2,3.7621272E3,-3.6626858E1,3.2782024E3,2.8680722E2,3.136332E3],"categories":[],"categories_nodes":[],"categories_segments":[],"categories_sizes":[],"default_left":[0,0,0,0,0,0,0,0,0],"id":31,"left_children":[1,3,-1,5,7,-1,-1,-1,-1],"loss_changes":[2.4323023E10,2.2293043E10,0E0,1.6237678E10,4.7417147E10,0E0,0E0,0E0,0E0],"parents":[2147483647,0,0,1,1,3,3,4,4],"right_children":[2,4,-1,6,8,-1,-1,-1,-1],"split_conditions":[6.7003E4,2.129E3,1.54406045E4,2.3E1,8.6E1,-3.6626858E1,3.2782024E3,2.8680722E2,3.136332E3],"split_indices":[130,123,0,44,83,0,0,0,0],"split_type":[0,0,0,0,0,0,0,0,0],"sum_hessian":[2.4873E4,2.4872E4,1E0,2.3387E4,1.485E3,2.3359E4,2.8E1,1.361E3,1.24E2],"tree_param":{"num_deleted":"0","num_feature":"144","num_nodes":"9","size_leaf_vector":"1"}}]},"name":"gbtree"},"learner_model_param":{"base_score":"1.5221075E4","boost_from_average":"1","num_class":"0","num_feature":"144","num_target":"1"},"objective":{"name":"reg:squarederror","reg_loss_param":{"scale_pos_weight":"1"}}},"version":[2,1,3]}